digraph Tree {
node [shape=box, style="filled, rounded", color="black", fontname=helvetica] ;
edge [fontname=helvetica] ;
0 [label="s4 <= 1418.92\ngini = 0.25\nsamples = 13025\nvalue = [17565, 3066]", fillcolor="#ea975c"] ;
1 [label="s17 <= 394.5\ngini = 0.08\nsamples = 11136\nvalue = [16885, 780]", fillcolor="#e68742"] ;
0 -> 1 [labeldistance=2.5, labelangle=45, headlabel="True"] ;
2 [label="ttf <= 30.5\ngini = 0.04\nsamples = 10023\nvalue = [15557, 294]", fillcolor="#e5833d"] ;
1 -> 2 ;
3 [label="gini = 0.0\nsamples = 191\nvalue = [0, 294]", fillcolor="#399de5"] ;
2 -> 3 ;
4 [label="gini = 0.0\nsamples = 9832\nvalue = [15557, 0]", fillcolor="#e58139"] ;
2 -> 4 ;
5 [label="s21 <= 23.18\ngini = 0.39\nsamples = 1113\nvalue = [1328, 486]", fillcolor="#efaf81"] ;
1 -> 5 ;
6 [label="s7 <= 552.51\ngini = 0.5\nsamples = 324\nvalue = [249, 293]", fillcolor="#e1f0fb"] ;
5 -> 6 ;
7 [label="s9 <= 9105.16\ngini = 0.44\nsamples = 188\nvalue = [102, 211]", fillcolor="#99ccf2"] ;
6 -> 7 ;
8 [label="ttf <= 30.5\ngini = 0.49\nsamples = 146\nvalue = [102, 140]", fillcolor="#c9e4f8"] ;
7 -> 8 ;
9 [label="gini = 0.0\nsamples = 80\nvalue = [0, 140]", fillcolor="#399de5"] ;
8 -> 9 ;
10 [label="gini = 0.0\nsamples = 66\nvalue = [102, 0]", fillcolor="#e58139"] ;
8 -> 10 ;
11 [label="gini = 0.0\nsamples = 42\nvalue = [0, 71]", fillcolor="#399de5"] ;
7 -> 11 ;
12 [label="s9 <= 9096.23\ngini = 0.46\nsamples = 136\nvalue = [147, 82]", fillcolor="#f4c7a7"] ;
6 -> 12 ;
13 [label="ttf <= 30.5\ngini = 0.28\nsamples = 95\nvalue = [131, 27]", fillcolor="#ea9b62"] ;
12 -> 13 ;
14 [label="gini = 0.0\nsamples = 18\nvalue = [0, 27]", fillcolor="#399de5"] ;
13 -> 14 ;
15 [label="gini = 0.0\nsamples = 77\nvalue = [131, 0]", fillcolor="#e58139"] ;
13 -> 15 ;
16 [label="ttf <= 30.5\ngini = 0.35\nsamples = 41\nvalue = [16, 55]", fillcolor="#73baed"] ;
12 -> 16 ;
17 [label="gini = 0.0\nsamples = 32\nvalue = [0, 55]", fillcolor="#399de5"] ;
16 -> 17 ;
18 [label="gini = 0.0\nsamples = 9\nvalue = [16, 0]", fillcolor="#e58139"] ;
16 -> 18 ;
19 [label="ttf <= 30.5\ngini = 0.26\nsamples = 789\nvalue = [1079, 193]", fillcolor="#ea985c"] ;
5 -> 19 ;
20 [label="gini = 0.0\nsamples = 115\nvalue = [0, 193]", fillcolor="#399de5"] ;
19 -> 20 ;
21 [label="gini = 0.0\nsamples = 674\nvalue = [1079, 0]", fillcolor="#e58139"] ;
19 -> 21 ;
22 [label="ttf <= 30.5\ngini = 0.35\nsamples = 1889\nvalue = [680, 2286]", fillcolor="#74baed"] ;
0 -> 22 [labeldistance=2.5, labelangle=-45, headlabel="False"] ;
23 [label="gini = 0.0\nsamples = 1470\nvalue = [0, 2286]", fillcolor="#399de5"] ;
22 -> 23 ;
24 [label="gini = 0.0\nsamples = 419\nvalue = [680, 0]", fillcolor="#e58139"] ;
22 -> 24 ;
}